digraph Tree {
node [shape=box, style="filled, rounded", color="black", fontname=helvetica] ;
edge [fontname=helvetica] ;

11 [label="f16 <= 6182\ngini = 0.74\nsamples = 2500\nvalue = [800, 1500, 300, 550]\nclass = 1"] ;

12 [label="f16 <= 100\ngini = 0.64\nsamples = 1900\nvalue = [800, 1100, 0, 0]\nclass = 1"] ;
11 -> 12 ;

13 [label="gini = 0.0\nsamples = 800\nvalue = [800, 0, 0, 0]\nclass = 0"] ;
12 -> 13 ;

14 [label="gini = 0.0\nsamples = 1100\nvalue = [0, 1100, 0, 0]\nclass = 1"] ;
12 -> 14 ;

15 [label="f17 <= 999\ngini = 0.50\nsamples = 600\nvalue = [0, 400, 300, 550]\nclass = 3"] ;
11 -> 15 ;

15 [label="gini = 0.0\nsamples = 300\nvalue = [0, 0, 300, 0]\nclass = 2"] ;
15 -> 16 ;

17 [label="gini = 0.0\nsamples = 300\nvalue = [0, 0, 0, 550]\nclass = 3"] ;
15 -> 17 ;
}
