digraph Tree {
node [shape=box, style="filled, rounded", color="black", fontname=helvetica] ;
edge [fontname=helvetica] ;

98 [label="f27 <= 3134\ngini = 0.75\nsamples = 400\nvalue = [120, 180, 75, 70]\nclass = 1"] ;

99 [label="f27 <= 20\ngini = 0.48\nsamples = 250\nvalue = [120, 180, 0, 0]\nclass = 1"] ;
98 -> 99 ;

100 [label="gini = 0.0\nsamples = 120\nvalue = [120, 0, 0, 0]\nclass = 0"] ;
99 -> 100 ;

101 [label="gini = 0.0\nsamples = 130\nvalue = [0, 180, 0, 0]\nclass = 1"] ;
99 -> 101 ;

102 [label="f28 <= 1333\ngini = 0.47\nsamples = 150\nvalue = [0, 0, 75, 70]\nclass = 2"] ;
98 -> 102 ;

103 [label="gini = 0.0\nsamples = 75\nvalue = [0, 0, 75, 0]\nclass = 2"] ;
102 -> 103 ;

104 [label="gini = 0.0\nsamples = 75\nvalue = [0, 0, 0, 70]\nclass = 3"] ;
102 -> 104 ;
}
