digraph Tree {
node [shape=box, style="filled, rounded", color="black", fontname=helvetica] ;
edge [fontname=helvetica] ;

2 [label="f4 <= 4382\ngini = 0.74\nsamples = 500\nvalue = [100, 180, 110, 110]\nclass = 1"] ;

3 [label="f8 <= 8700\ngini = 0.5\nsamples = 470\nvalue = [1, 469, 0, 0]\nclass = 1"] ;
2 -> 3 ;

4 [label="gini = 0.0\nsamples = 460\nvalue = [460, 0, 0, 0]\nclass = 0"] ;
3 -> 4 ;

11 [label="gini = 0.0\nsamples = 10\nvalue = [0, 10, 0, 0]\nclass = 1"] ;
3 -> 11 ;

18 [label="f9 <= 200\ngini = 0.56\nsamples = 30\nvalue = [0, 0, 19, 11]\nclass = 2"] ;
2 -> 18 ;

19 [label="gini = 0.0\nsamples = 14\nvalue = [0, 0, 14, 0]\nclass = 2"] ;
18 -> 19 ;

26 [label="gini = 0.0\nsamples = 16\nvalue = [0, 0, 0, 16]\nclass = 3"] ;
18 -> 26 ;
}
