digraph Tree {
node [shape=box, style="filled, rounded", color="black", fontname=helvetica] ;
edge [fontname=helvetica] ;

96 [label="f7 <= 3676\ngini = 0.74\nsamples = 2500\nvalue = [800, 1500, 300, 550]\nclass = 1"] ;

97 [label="f14 <= 7770\ngini = 0.64\nsamples = 1900\nvalue = [800, 1100, 0, 0]\nclass = 1"] ;
96 -> 97 ;

98 [label="gini = 0.0\nsamples = 800\nvalue = [800, 0, 0, 0]\nclass = 0"] ;
97 -> 98 ;

105 [label="gini = 0.0\nsamples = 1100\nvalue = [0, 1100, 0, 0]\nclass = 1"] ;
97 -> 105 ;

112 [label="f15 <= 617\ngini = 0.50\nsamples = 600\nvalue = [0, 400, 300, 550]\nclass = 3"] ;
96 -> 112 ;

112 [label="gini = 0.0\nsamples = 300\nvalue = [0, 0, 300, 0]\nclass = 2"] ;
112 -> 113 ;

112 [label="gini = 0.0\nsamples = 300\nvalue = [0, 0, 0, 550]\nclass = 3"] ;
112 -> 120 ;
}
