digraph Tree {
node [shape=box, style="filled, rounded", color="black", fontname=helvetica] ;
edge [fontname=helvetica] ;

17 [label="f1 <= 400\ngini = 0.75\nsamples = 100\nvalue = [30, 55, 20, 10]\nclass = 1"] ;

18 [label="f1 <= 0\ngini = 0.64\nsamples = 60\nvalue = [30, 45, 0, 0]\nclass = 1"] ;
17 -> 18 ;

19 [label="gini = 0.0\nsamples = 30\nvalue = [30, 0, 0, 0]\nclass = 0"] ;
18 -> 19 ;

20 [label="gini = 0.0\nsamples = 30\nvalue = [0, 45, 0, 0]\nclass = 1"] ;
18 -> 20 ;

21 [label="f3 <= 700\ngini = 0.48\nsamples = 40\nvalue = [0, 10, 20, 10]\nclass = 2"] ;
17 -> 21 ;

22 [label="gini = 0.0\nsamples = 20\nvalue = [0, 0, 20, 0]\nclass = 2"] ;
21 -> 22 ;

23 [label="gini = 0.0\nsamples = 20\nvalue = [0, 0, 0, 10]\nclass = 3"] ;
21 -> 23 ;
}
